const trained_data = [{
    "weights": {
      "rows": 10,
      "cols": 15,
      "data": [
        [
          1.8451506188737308,
          -1.2446205014318281,
          4.285388917218785,
          2.2986386133504415,
          -1.5449882639323111,
          -0.596995151885503,
          1.4554495968875003,
          -3.5308836075248213,
          -0.29021778232149104,
          0.48678180213420286,
          7.1881098325578865,
          1.2737799403040608,
          6.654372763838635,
          -0.5067022755530712,
          -0.2255210607435969
        ],
        [
          -1.358566900113833,
          -5.92217767989551,
          -4.798319467097045,
          0.4641902843582555,
          0.11479420470459313,
          -1.0753296032163735,
          -1.2731311085993233,
          0.7116415360998571,
          0.909978262036275,
          -1.1143108825804824,
          0.5182392187943428,
          2.9452324786518425,
          3.675892910729941,
          -3.5504280301885345,
          -0.9199053253708589
        ],
        [
          2.5435590161590143,
          0.570782415085511,
          -0.15498990607883711,
          -6.823935455984769,
          1.1262399566912524,
          1.2083685199318392,
          -5.382168376448078,
          -0.3424947764628218,
          -1.9302411866694542,
          -4.602592151009774,
          -6.141535924436914,
          1.1507934907951103,
          -0.0749425527372794,
          -6.680917870329353,
          -0.7876045163959543
        ],
        [
          -2.4636075424327757,
          3.645510565006802,
          -0.3074501564055474,
          -3.5962497536572053,
          -2.9948191762910334,
          0.7044133625708073,
          -2.5944239620379133,
          -2.5872711960613146,
          -0.1323464622545123,
          -2.3730930014403278,
          -2.41310831495903,
          -2.1128675384918414,
          3.1353976190934114,
          2.0550355589242004,
          6.449747256561688
        ],
        [
          3.4657947393056605,
          0.13502669667133763,
          -2.1982542516165267,
          0.4424480500238238,
          0.6280047074781498,
          1.70472191651041,
          4.722348918902117,
          -0.9401105816524152,
          -3.5966579841915234,
          -0.5172006890891395,
          -6.053903148422207,
          -0.0781920950406283,
          6.263135687057013,
          -2.0792396602310514,
          0.8489449091427084
        ],
        [
          4.1068805810737,
          3.5720945967306172,
          2.7779703765768478,
          1.3513999570285067,
          3.699952420989431,
          -0.2914010466840433,
          2.568964032067045,
          0.3269587820384155,
          3.917232359672705,
          -0.31432547835559205,
          -1.6063366438837416,
          -3.9915881717800747,
          0.1958392481633254,
          -1.8437971973487783,
          2.8497149401506636
        ],
        [
          -2.08242511872691,
          -0.3628471469155743,
          -0.3691262784194135,
          2.6017560872113905,
          -4.242567733340465,
          1.721417969457781,
          -0.9010162836762363,
          -2.4484727633751104,
          1.8156685460783613,
          -0.35677345915256864,
          -1.4583773505901956,
          1.9836531770044699,
          -4.883341294254603,
          3.623404852907836,
          2.946359390239538
        ],
        [
          -1.5075200837115204,
          4.3049586940599625,
          -3.0150107384868536,
          -3.6591012028147905,
          7.581438278768882,
          -0.3166473859531098,
          -1.0054827619170421,
          -1.6382610185883546,
          2.9241581028603485,
          1.135456750731796,
          2.3891930955068723,
          1.6621039672231308,
          -1.4981421645538369,
          1.063229714081185,
          0.8396618478138563
        ],
        [
          -0.3673493703372126,
          2.4731583440378793,
          0.09423927709293708,
          -1.9564488933272544,
          3.8710143266815975,
          4.885019371793478,
          1.2524792894147458,
          -2.67669813834036,
          -0.07614923046660488,
          3.1045235951797907,
          0.561633288901253,
          -0.870320062809777,
          -1.8126704200565482,
          4.67527449282429,
          -1.531191559412699
        ],
        [
          0.38185994163726084,
          3.414616272160878,
          1.315408582089181,
          -3.557567401173486,
          -6.812004388943997,
          1.6414207209428642,
          5.216285014335825,
          -1.0660037604298558,
          3.3622796471287852,
          2.016868265863374,
          -1.2746039547212729,
          -2.8008006415588453,
          3.75105834887823,
          5.003140639826397,
          -0.25967762815583995
        ]
      ]
    },
    "bias": {
      "rows": 10,
      "cols": 1,
      "data": [
        [
          0.877
        ],
        [
          0.9
        ],
        [
          -0.497
        ],
        [
          -0.922
        ],
        [
          -0.473
        ],
        [
          -0.666
        ],
        [
          0.048
        ],
        [
          -0.337
        ],
        [
          -0.324
        ],
        [
          -0.403
        ]
      ]
    }
  },
  {
    "weights": {
      "rows": 10,
      "cols": 10,
      "data": [
        [
          -0.2330143621380099,
          0.8760330863144469,
          1.6646379467930925,
          0.7029309638057535,
          -0.8893568744436812,
          3.6471245424289505,
          3.970585720777713,
          2.6064534509875967,
          0.12782811333507538,
          1.6597327239831976
        ],
        [
          -5.02346947197381,
          -0.41721162853036137,
          -3.643655406810268,
          -3.8884635163276,
          -0.3163574574631002,
          0.30622624513202223,
          1.2558934955246241,
          5.1683503481394935,
          2.335457143000061,
          0.8437341683446025
        ],
        [
          -0.5542124475201954,
          -0.13942831390308685,
          -3.2713477133938786,
          0.14762970051728827,
          0.62506501519024,
          -2.889211083382443,
          3.172658360714254,
          4.647325760480175,
          1.3407062176585596,
          -7.257386242198283
        ],
        [
          2.543836789517377,
          -1.2986570501999446,
          1.042966007837405,
          -5.362404655722932,
          -1.7011734846254658,
          -0.34045737589823605,
          2.462949008955903,
          2.872245441043597,
          3.550480788633508,
          4.1682690418608725
        ],
        [
          -1.2508166006487098,
          3.816100816125543,
          1.65698382680567,
          0.6448027238545838,
          0.17290408676328844,
          -0.8564863088199409,
          0.64195985371546,
          0.3931579408255923,
          -2.2473568889811415,
          -8.562441360575518
        ],
        [
          -0.6261512913650454,
          4.559636213270916,
          -1.045479151948106,
          0.15581132120596086,
          -5.991926171881108,
          1.5994666785291514,
          2.444245769288904,
          0.3005764840604706,
          5.438866567708647,
          0.9801238389753221
        ],
        [
          -0.2845619943076221,
          -0.8201974621518124,
          -0.4432542863185146,
          1.0794858607150448,
          3.7493169129616306,
          -3.526092897982271,
          -2.8610387076994948,
          -2.529455936958127,
          -0.5806636467214366,
          1.434564225701826
        ],
        [
          -0.47077297749702784,
          -3.935162356013914,
          -1.170723731140473,
          1.3022697752492165,
          -0.01072629740917197,
          -0.4108988280953667,
          -1.0124486732877975,
          6.177636694816077,
          -2.2842905931051747,
          -1.3632184038569104
        ],
        [
          -4.2461185700164314,
          0.8263772338302494,
          -4.571938559227296,
          -1.6815255842630379,
          4.636455839625046,
          0.7826422673637472,
          -0.5372856809699086,
          3.9121339120351775,
          -1.7298335205981576,
          -1.2424048019352327
        ],
        [
          2.3451391530953036,
          -3.480183457085909,
          -0.48361429763263414,
          3.80933642234215,
          0.9902753195572591,
          -0.7539698768411679,
          1.4427107386923024,
          -0.018924152576893505,
          -3.391379961307861,
          0.4191022976858847
        ]
      ]
    },
    "bias": {
      "rows": 10,
      "cols": 1,
      "data": [
        [
          -0.419
        ],
        [
          -0.748
        ],
        [
          -0.891
        ],
        [
          -0.093
        ],
        [
          0.022
        ],
        [
          0.226
        ],
        [
          -0.04
        ],
        [
          -0.635
        ],
        [
          -0.79
        ],
        [
          0.97
        ]
      ]
    }
  },
  {
    "weights": {
      "rows": 4,
      "cols": 10,
      "data": [
        [
          -3.3510905628734244,
          -3.1642218591105533,
          3.934872334437106,
          -3.189777230919564,
          -1.2185354407446334,
          0.46814030958121167,
          1.3158930665633994,
          1.511111561741216,
          3.274808116401838,
          2.746924557404297
        ],
        [
          -3.9146049308775295,
          2.5925887877826588,
          3.2488978226338383,
          -2.7631295671955542,
          -1.1156563818731438,
          0.9914195941197168,
          0.15905462166158285,
          2.1485393909255484,
          -0.07568215623609043,
          -1.0165938355013917
        ],
        [
          0.9363388512729116,
          2.7283773357673278,
          -3.0848735641380753,
          2.5031951708798035,
          -0.7956681023003905,
          0.7531691962745766,
          2.767299599513563,
          1.238598761159883,
          -2.5322558401381694,
          0.9753914465354552
        ],
        [
          4.306955996070146,
          2.701170608485123,
          -2.795697727955297,
          -0.28648583225242785,
          -3.163913099050546,
          -7.4721168306746035,
          2.7816379214676785,
          0.15922045556757286,
          -2.449340265680693,
          -7.1592339351709455
        ]
      ]
    },
    "bias": {
      "rows": 4,
      "cols": 1,
      "data": [
        [
          -0.919
        ],
        [
          0.345
        ],
        [
          -0.294
        ],
        [
          -0.432
        ]
      ]
    }
  },
  {
    "weights": {
      "rows": 2,
      "cols": 4,
      "data": [
        [
          3.1343910435758446,
          -2.9240165706187176,
          6.099110770248826,
          3.7661223675279105
        ],
        [
          -1.5711793327625367,
          4.564916196472448,
          -0.5549410532581946,
          -0.7098268384428533
        ]
      ]
    },
    "bias": {
      "rows": 2,
      "cols": 1,
      "data": [
        [
          0.274
        ],
        [
          -0.971
        ]
      ]
    }
  }
]