const trained_data = [{
    "weights": {
      "rows": 10,
      "cols": 15,
      "data": [
        [
          2.898047092315006,
          -1.0847574388409873,
          3.590248809147153,
          2.0472043739192376,
          -1.0638275715138867,
          0.09897123401591185,
          0.8308199007143855,
          -4.089412442723044,
          -0.6688244349986512,
          -0.11584742780734261,
          7.1881098325578865,
          0.9900157625593318,
          7.290463570641615,
          -0.9401754901410442,
          -0.728484880347509
        ],
        [
          -1.358566900113833,
          -5.843473188494116,
          -4.9065502690856615,
          0.02627552590255161,
          0.11206632255322768,
          -0.47719061354187786,
          -1.2731311085993233,
          0.4941951137661845,
          0.909978262036275,
          -1.7881985854927853,
          2.0041619514127325,
          2.6904032150270902,
          3.8033027225256375,
          -3.6144467000147458,
          -0.9632192010012897
        ],
        [
          1.9765899483737792,
          0.9181195762720131,
          -0.11447783887604024,
          -6.905998767734342,
          2.1507136784616323,
          0.8336601201450051,
          -5.244342270202047,
          -0.6991625733604832,
          -1.5854653546764752,
          -3.8006218633193605,
          -6.880056026517978,
          1.1507934907951103,
          -0.377038315577537,
          -6.966472116354571,
          -0.8088525702839378
        ],
        [
          -1.867557260884269,
          3.495946969013309,
          -0.2078590372593793,
          -3.5962497536572053,
          -2.9948191762910334,
          0.1277761427746002,
          -2.5944239620379133,
          -2.9375166919935913,
          -0.8557268244344294,
          -2.9839652945311603,
          -2.3482987868186815,
          -1.399989446312287,
          3.1353976190934114,
          2.0550355589242004,
          5.72268529380527
        ],
        [
          2.542042901020098,
          -0.046938518192255155,
          -2.2651254145922715,
          0.4424480500238238,
          1.575074199419652,
          2.547398021292409,
          4.272899381806548,
          -0.1794476978222288,
          -3.415978225754563,
          -1.2240158186175059,
          -6.053903148422207,
          -0.6041984737323438,
          6.523928539871193,
          -2.685345711158436,
          0.8489449091427084
        ],
        [
          4.165946483210576,
          3.118569172367716,
          1.8158509769724316,
          1.2535086793354817,
          3.4050564465195685,
          -0.1442290666948259,
          2.753209136083967,
          -0.11814513247169234,
          3.0474941932958295,
          -0.27870859050086383,
          -1.615396080048779,
          -3.260716294695934,
          1.6277565275079022,
          -1.729378852767691,
          3.4203819788475425
        ],
        [
          -1.3876891373133893,
          -0.21980756174083005,
          -1.0141439796554415,
          1.7237039662515943,
          -4.232090188215752,
          2.564406581936718,
          -0.3302618160078783,
          -1.8666643605438227,
          2.6741083623832202,
          -0.8590966397884533,
          -1.4583773505901956,
          2.0129366493346446,
          -4.933419482512822,
          3.623404852907836,
          3.4442506723142023
        ],
        [
          -0.41825541086746953,
          3.4760496532998237,
          -3.6550257715442447,
          -3.6591012028147905,
          7.581438278768882,
          -0.3166473859531098,
          -0.4155872654438707,
          -0.6830768989430076,
          1.1092048374835544,
          1.3001537370709846,
          2.3891930955068723,
          1.6621039672231308,
          -1.035570017820662,
          1.063229714081185,
          0.2892648987358335
        ],
        [
          -0.7820999715428875,
          2.3466248861940198,
          0.09423927709293708,
          -2.1381178296658763,
          3.5967329816013196,
          5.722192161130819,
          1.5455562735609423,
          -2.67669813834036,
          -0.07614923046660488,
          3.1201198626017037,
          0.6119832507100978,
          -1.5249577578129998,
          -2.1609787583520914,
          4.191284770962564,
          -1.531191559412699
        ],
        [
          0.38185994163726084,
          3.414616272160878,
          0.4974722935042504,
          -4.115492148146326,
          -7.1533613943459455,
          1.7824530333800537,
          5.777150744813065,
          -0.3978076790676113,
          2.827174084786425,
          3.2751647320464476,
          -1.205872255578635,
          -2.675960275212906,
          2.3278912823800035,
          4.195553333405562,
          0.4074077204861183
        ]
      ]
    },
    "bias": {
      "rows": 10,
      "cols": 1,
      "data": [
        [
          0.877
        ],
        [
          0.9
        ],
        [
          -0.497
        ],
        [
          -0.922
        ],
        [
          -0.473
        ],
        [
          -0.666
        ],
        [
          0.048
        ],
        [
          -0.337
        ],
        [
          -0.324
        ],
        [
          -0.403
        ]
      ]
    }
  },
  {
    "weights": {
      "rows": 10,
      "cols": 10,
      "data": [
        [
          -0.11016059596963518,
          0.8760330863144469,
          0.7596698556829502,
          1.119718227457448,
          -0.9217510154232141,
          3.303936559314124,
          3.970585720777713,
          1.5830224240471604,
          -0.5923219683862888,
          1.3299214425159214
        ],
        [
          -5.02346947197381,
          -0.29868282818813996,
          -2.6514431450585576,
          -4.594493728745572,
          0.09213142452356679,
          1.2255241704257354,
          0.83613835143891,
          4.722238609002261,
          1.8143232484894103,
          2.3849718220406397
        ],
        [
          -0.5542124475201954,
          -0.4561519765968006,
          -1.958570595196251,
          -0.062405696570028646,
          -1.2749647510446058,
          -2.685923710372016,
          3.029399907081522,
          4.647325760480175,
          1.4326649544544836,
          -6.832843563022583
        ],
        [
          2.8808854398396,
          -0.7503861035888185,
          1.1188048061327194,
          -5.70848200412515,
          -1.4751380368910656,
          -0.34045737589823605,
          2.462949008955903,
          2.872245441043597,
          3.132479981565791,
          3.6208863437107635
        ],
        [
          -1.7629338697028443,
          4.15059966427187,
          0.6831756723162281,
          1.2550994468565149,
          -0.005788972149016969,
          -1.690827934827546,
          0.33853444394977417,
          0.01183875020869013,
          -1.7278515389599307,
          -8.668571705252567
        ],
        [
          0.38001102188492103,
          5.135959356830174,
          -1.7461135386801172,
          0.4403984845948832,
          -6.0277856038587645,
          1.5994666785291514,
          2.1606199115609948,
          -1.2205397586111484,
          5.030596046404269,
          0.8717629450283669
        ],
        [
          -0.9562444865278117,
          -1.7712949736610333,
          0.2198575233505058,
          1.2480541681245834,
          3.809045958296508,
          -3.526092897982271,
          -2.8610387076994948,
          -1.828258915428363,
          -0.5806636467214366,
          1.1753298995574413
        ],
        [
          -0.05723188011463273,
          -3.935162356013914,
          -1.218811333718695,
          1.3022697752492165,
          0.5240577504130105,
          0.14836000357383056,
          -1.0599151579967663,
          6.210654668041148,
          -2.1199531852681726,
          -1.6221352971019627
        ],
        [
          -3.300766723164752,
          1.7662673960308666,
          -4.52452291096654,
          -0.7487344341457474,
          4.636455839625046,
          0.8536485838290276,
          -0.3659768409119621,
          2.797442777982297,
          -1.2001480359921775,
          -1.4018129151794754
        ],
        [
          1.7917578566369805,
          -3.480183457085909,
          -0.7667821732262763,
          3.6825836550910127,
          0.5512555979634766,
          -1.3557085230483124,
          1.2766716444769626,
          -0.41712340983863594,
          -3.391379961307861,
          0.4191022976858847
        ]
      ]
    },
    "bias": {
      "rows": 10,
      "cols": 1,
      "data": [
        [
          -0.419
        ],
        [
          -0.748
        ],
        [
          -0.891
        ],
        [
          -0.093
        ],
        [
          0.022
        ],
        [
          0.226
        ],
        [
          -0.04
        ],
        [
          -0.635
        ],
        [
          -0.79
        ],
        [
          0.97
        ]
      ]
    }
  },
  {
    "weights": {
      "rows": 4,
      "cols": 10,
      "data": [
        [
          -3.3510905628734244,
          -1.7334248208077268,
          4.481043042344634,
          -2.846869539254892,
          -0.61505599311403,
          -0.01882532141826826,
          1.7656189364765622,
          1.10916440382708,
          3.274808116401838,
          3.1304564601056297
        ],
        [
          -3.4767387178083107,
          1.7447167289292933,
          2.994452643018362,
          -2.544059033310072,
          -0.8088367516207411,
          0.9914195941197168,
          0.46676077025962837,
          1.0640235148531918,
          0.6350398761688242,
          -1.583345970403956
        ],
        [
          0.9363388512729116,
          3.2116468573880432,
          -3.4883475210234516,
          2.3888241463774693,
          -1.3117546886129992,
          0.7531691962745766,
          3.2032649071122554,
          1.484660686104751,
          -2.033213246656524,
          0.5672675949711989
        ],
        [
          4.018009379993664,
          0.6302537425992112,
          -2.8181061837904187,
          -0.28648583225242785,
          -3.163913099050546,
          -7.354241187431841,
          2.294140229978554,
          0.7805935845057843,
          -2.449340265680693,
          -7.061548049741313
        ]
      ]
    },
    "bias": {
      "rows": 4,
      "cols": 1,
      "data": [
        [
          -0.919
        ],
        [
          0.345
        ],
        [
          -0.294
        ],
        [
          -0.432
        ]
      ]
    }
  },
  {
    "weights": {
      "rows": 2,
      "cols": 4,
      "data": [
        [
          3.471941043997953,
          -4.071449561364523,
          6.099110770248826,
          2.925071889784742
        ],
        [
          -0.34225369028540426,
          4.643023635520757,
          -0.19944140340481065,
          -1.401460860872725
        ]
      ]
    },
    "bias": {
      "rows": 2,
      "cols": 1,
      "data": [
        [
          0.274
        ],
        [
          -0.971
        ]
      ]
    }
  }
]