const trained_data = [
  [{
      "weights": {
        "rows": 10,
        "cols": 15,
        "data": [
          [
            2.898047092315006,
            -1.0847574388409873,
            3.590248809147153,
            2.0472043739192376,
            -1.0638275715138867,
            0.09897123401591185,
            0.8308199007143855,
            -4.089412442723044,
            -0.6688244349986512,
            -0.11584742780734261,
            7.1881098325578865,
            0.9900157625593318,
            7.290463570641615,
            -0.9401754901410442,
            -0.728484880347509
          ],
          [
            -1.358566900113833,
            -5.843473188494116,
            -4.9065502690856615,
            0.02627552590255161,
            0.11206632255322768,
            -0.47719061354187786,
            -1.2731311085993233,
            0.4941951137661845,
            0.909978262036275,
            -1.7881985854927853,
            2.0041619514127325,
            2.6904032150270902,
            3.8033027225256375,
            -3.6144467000147458,
            -0.9632192010012897
          ],
          [
            1.9765899483737792,
            0.9181195762720131,
            -0.11447783887604024,
            -6.905998767734342,
            2.1507136784616323,
            0.8336601201450051,
            -5.244342270202047,
            -0.6991625733604832,
            -1.5854653546764752,
            -3.8006218633193605,
            -6.880056026517978,
            1.1507934907951103,
            -0.377038315577537,
            -6.966472116354571,
            -0.8088525702839378
          ],
          [
            -1.867557260884269,
            3.495946969013309,
            -0.2078590372593793,
            -3.5962497536572053,
            -2.9948191762910334,
            0.1277761427746002,
            -2.5944239620379133,
            -2.9375166919935913,
            -0.8557268244344294,
            -2.9839652945311603,
            -2.3482987868186815,
            -1.399989446312287,
            3.1353976190934114,
            2.0550355589242004,
            5.72268529380527
          ],
          [
            2.542042901020098,
            -0.046938518192255155,
            -2.2651254145922715,
            0.4424480500238238,
            1.575074199419652,
            2.547398021292409,
            4.272899381806548,
            -0.1794476978222288,
            -3.415978225754563,
            -1.2240158186175059,
            -6.053903148422207,
            -0.6041984737323438,
            6.523928539871193,
            -2.685345711158436,
            0.8489449091427084
          ],
          [
            4.165946483210576,
            3.118569172367716,
            1.8158509769724316,
            1.2535086793354817,
            3.4050564465195685,
            -0.1442290666948259,
            2.753209136083967,
            -0.11814513247169234,
            3.0474941932958295,
            -0.27870859050086383,
            -1.615396080048779,
            -3.260716294695934,
            1.6277565275079022,
            -1.729378852767691,
            3.4203819788475425
          ],
          [
            -1.3876891373133893,
            -0.21980756174083005,
            -1.0141439796554415,
            1.7237039662515943,
            -4.232090188215752,
            2.564406581936718,
            -0.3302618160078783,
            -1.8666643605438227,
            2.6741083623832202,
            -0.8590966397884533,
            -1.4583773505901956,
            2.0129366493346446,
            -4.933419482512822,
            3.623404852907836,
            3.4442506723142023
          ],
          [
            -0.41825541086746953,
            3.4760496532998237,
            -3.6550257715442447,
            -3.6591012028147905,
            7.581438278768882,
            -0.3166473859531098,
            -0.4155872654438707,
            -0.6830768989430076,
            1.1092048374835544,
            1.3001537370709846,
            2.3891930955068723,
            1.6621039672231308,
            -1.035570017820662,
            1.063229714081185,
            0.2892648987358335
          ],
          [
            -0.7820999715428875,
            2.3466248861940198,
            0.09423927709293708,
            -2.1381178296658763,
            3.5967329816013196,
            5.722192161130819,
            1.5455562735609423,
            -2.67669813834036,
            -0.07614923046660488,
            3.1201198626017037,
            0.6119832507100978,
            -1.5249577578129998,
            -2.1609787583520914,
            4.191284770962564,
            -1.531191559412699
          ],
          [
            0.38185994163726084,
            3.414616272160878,
            0.4974722935042504,
            -4.115492148146326,
            -7.1533613943459455,
            1.7824530333800537,
            5.777150744813065,
            -0.3978076790676113,
            2.827174084786425,
            3.2751647320464476,
            -1.205872255578635,
            -2.675960275212906,
            2.3278912823800035,
            4.195553333405562,
            0.4074077204861183
          ]
        ]
      },
      "bias": {
        "rows": 10,
        "cols": 1,
        "data": [
          [
            0.877
          ],
          [
            0.9
          ],
          [
            -0.497
          ],
          [
            -0.922
          ],
          [
            -0.473
          ],
          [
            -0.666
          ],
          [
            0.048
          ],
          [
            -0.337
          ],
          [
            -0.324
          ],
          [
            -0.403
          ]
        ]
      }
    },
    {
      "weights": {
        "rows": 10,
        "cols": 10,
        "data": [
          [
            -0.11016059596963518,
            0.8760330863144469,
            0.7596698556829502,
            1.119718227457448,
            -0.9217510154232141,
            3.303936559314124,
            3.970585720777713,
            1.5830224240471604,
            -0.5923219683862888,
            1.3299214425159214
          ],
          [
            -5.02346947197381,
            -0.29868282818813996,
            -2.6514431450585576,
            -4.594493728745572,
            0.09213142452356679,
            1.2255241704257354,
            0.83613835143891,
            4.722238609002261,
            1.8143232484894103,
            2.3849718220406397
          ],
          [
            -0.5542124475201954,
            -0.4561519765968006,
            -1.958570595196251,
            -0.062405696570028646,
            -1.2749647510446058,
            -2.685923710372016,
            3.029399907081522,
            4.647325760480175,
            1.4326649544544836,
            -6.832843563022583
          ],
          [
            2.8808854398396,
            -0.7503861035888185,
            1.1188048061327194,
            -5.70848200412515,
            -1.4751380368910656,
            -0.34045737589823605,
            2.462949008955903,
            2.872245441043597,
            3.132479981565791,
            3.6208863437107635
          ],
          [
            -1.7629338697028443,
            4.15059966427187,
            0.6831756723162281,
            1.2550994468565149,
            -0.005788972149016969,
            -1.690827934827546,
            0.33853444394977417,
            0.01183875020869013,
            -1.7278515389599307,
            -8.668571705252567
          ],
          [
            0.38001102188492103,
            5.135959356830174,
            -1.7461135386801172,
            0.4403984845948832,
            -6.0277856038587645,
            1.5994666785291514,
            2.1606199115609948,
            -1.2205397586111484,
            5.030596046404269,
            0.8717629450283669
          ],
          [
            -0.9562444865278117,
            -1.7712949736610333,
            0.2198575233505058,
            1.2480541681245834,
            3.809045958296508,
            -3.526092897982271,
            -2.8610387076994948,
            -1.828258915428363,
            -0.5806636467214366,
            1.1753298995574413
          ],
          [
            -0.05723188011463273,
            -3.935162356013914,
            -1.218811333718695,
            1.3022697752492165,
            0.5240577504130105,
            0.14836000357383056,
            -1.0599151579967663,
            6.210654668041148,
            -2.1199531852681726,
            -1.6221352971019627
          ],
          [
            -3.300766723164752,
            1.7662673960308666,
            -4.52452291096654,
            -0.7487344341457474,
            4.636455839625046,
            0.8536485838290276,
            -0.3659768409119621,
            2.797442777982297,
            -1.2001480359921775,
            -1.4018129151794754
          ],
          [
            1.7917578566369805,
            -3.480183457085909,
            -0.7667821732262763,
            3.6825836550910127,
            0.5512555979634766,
            -1.3557085230483124,
            1.2766716444769626,
            -0.41712340983863594,
            -3.391379961307861,
            0.4191022976858847
          ]
        ]
      },
      "bias": {
        "rows": 10,
        "cols": 1,
        "data": [
          [
            -0.419
          ],
          [
            -0.748
          ],
          [
            -0.891
          ],
          [
            -0.093
          ],
          [
            0.022
          ],
          [
            0.226
          ],
          [
            -0.04
          ],
          [
            -0.635
          ],
          [
            -0.79
          ],
          [
            0.97
          ]
        ]
      }
    },
    {
      "weights": {
        "rows": 4,
        "cols": 10,
        "data": [
          [
            -3.3510905628734244,
            -1.7334248208077268,
            4.481043042344634,
            -2.846869539254892,
            -0.61505599311403,
            -0.01882532141826826,
            1.7656189364765622,
            1.10916440382708,
            3.274808116401838,
            3.1304564601056297
          ],
          [
            -3.4767387178083107,
            1.7447167289292933,
            2.994452643018362,
            -2.544059033310072,
            -0.8088367516207411,
            0.9914195941197168,
            0.46676077025962837,
            1.0640235148531918,
            0.6350398761688242,
            -1.583345970403956
          ],
          [
            0.9363388512729116,
            3.2116468573880432,
            -3.4883475210234516,
            2.3888241463774693,
            -1.3117546886129992,
            0.7531691962745766,
            3.2032649071122554,
            1.484660686104751,
            -2.033213246656524,
            0.5672675949711989
          ],
          [
            4.018009379993664,
            0.6302537425992112,
            -2.8181061837904187,
            -0.28648583225242785,
            -3.163913099050546,
            -7.354241187431841,
            2.294140229978554,
            0.7805935845057843,
            -2.449340265680693,
            -7.061548049741313
          ]
        ]
      },
      "bias": {
        "rows": 4,
        "cols": 1,
        "data": [
          [
            -0.919
          ],
          [
            0.345
          ],
          [
            -0.294
          ],
          [
            -0.432
          ]
        ]
      }
    },
    {
      "weights": {
        "rows": 2,
        "cols": 4,
        "data": [
          [
            3.471941043997953,
            -4.071449561364523,
            6.099110770248826,
            2.925071889784742
          ],
          [
            -0.34225369028540426,
            4.643023635520757,
            -0.19944140340481065,
            -1.401460860872725
          ]
        ]
      },
      "bias": {
        "rows": 2,
        "cols": 1,
        "data": [
          [
            0.274
          ],
          [
            -0.971
          ]
        ]
      }
    }
  ],
  [{
      "weights": {
        "rows": 10,
        "cols": 15,
        "data": [
          [
            0.19386134765489754,
            1.4220638663154526,
            3.0246186087554263,
            -3.7051548034897577,
            1.211929617877481,
            0.5593158215829098,
            -1.1773569550937315,
            0.32812908504381766,
            1.1699579773421274,
            0.6342724054155063,
            -0.46596910583169127,
            1.290337654113396,
            4.2226988737460625,
            -2.4756668965603192,
            0.8663836009083254
          ],
          [
            3.5873226130612186,
            -1.085587428317885,
            5.34219324058084,
            -0.7278639318996585,
            -1.7878604600550252,
            0.17083370910229015,
            -0.06835799147402111,
            2.6381395407279604,
            -0.9552491741968028,
            -1.130596362848354,
            0.8182168731330413,
            1.1675051865298989,
            2.15312793472884,
            2.282599038078047,
            4.159298699376814
          ],
          [
            -0.8744010626498981,
            -0.8792598406106549,
            -0.6666447584354549,
            3.8672625453781593,
            0.5480597199494781,
            -0.6760822139431455,
            -0.12507334596104502,
            -0.48198714069048665,
            -0.3213819403861037,
            -1.0290492874886576,
            1.4282223659003992,
            -0.8702539745639128,
            0.18395082811840333,
            -2.557326810968828,
            0.022509079792128444
          ],
          [
            -1.954661243209741,
            -1.1284421268736033,
            1.1763730967229469,
            -3.111107071942464,
            -1.6859376730411517,
            0.28347918898428537,
            2.3515837970554307,
            -1.3980304719852237,
            -0.247090222872487,
            -1.6784046886387174,
            0.10712936887020674,
            0.9241784806261,
            -0.7161918272338674,
            1.5923950840526064,
            -1.8096372110979795
          ],
          [
            -1.2178969494218648,
            1.0865316479876406,
            -0.16347035006698452,
            -0.25708815029572085,
            -4.2842798473087615,
            -2.5378307277808356,
            1.1892097597037037,
            -2.083280904020093,
            -1.3414308311529586,
            3.8050886051441157,
            3.6315953316872056,
            0.28730732530338293,
            -0.45094966964993716,
            3.3488446316467413,
            0.5706584190224693
          ],
          [
            1.3229420874412336,
            1.6680740946307606,
            1.1063009629866178,
            -1.9992201370252687,
            1.7648995438000377,
            0.9479493198327942,
            0.7279574118898944,
            3.6885381520867995,
            0.9973843419921546,
            3.0340414050755946,
            0.40829652782273507,
            -0.0013934976738819022,
            -1.9451379050260689,
            1.4731423041781255,
            -2.0829637999171813
          ],
          [
            0.08027973280879469,
            -0.5624350483098239,
            0.14911594772165548,
            1.0609576702777956,
            3.2975019241445924,
            0.5698621605062214,
            1.9725742897908098,
            0.08169415831557209,
            -0.8446044674427484,
            -0.14772629558730266,
            -0.6733511029933947,
            -1.6174496979939808,
            -3.401070988993019,
            -0.6720208012493545,
            0.8717564140362948
          ],
          [
            -0.9475934856550645,
            -1.5195333546299319,
            0.38300854081867053,
            2.1195421792708418,
            2.984000454002662,
            -2.1597361622907107,
            -0.9505705791972235,
            -2.0536639666833447,
            -0.0468965717249511,
            -1.2547152696764767,
            0.8797935309049159,
            -0.1997120427706897,
            -0.8885615760878078,
            2.134654492727403,
            0.6020989297972313
          ],
          [
            -1.2894934035852772,
            0.9566560838671159,
            1.8010956930408641,
            0.7182404916383298,
            1.058060723601997,
            -3.41898786102091,
            2.551488806600791,
            -0.926041256279278,
            -1.0580983598030262,
            1.0630552433000557,
            1.920449774651761,
            -2.6880170680872935,
            1.195360402412788,
            -0.16272830547695133,
            -1.983796369427434
          ],
          [
            -2.348795860973521,
            -0.06542071896829665,
            0.2931767250274788,
            -4.94496843964375,
            1.4510544372219745,
            0.4047491932240592,
            0.5755552095835184,
            0.8806552386744593,
            -0.5236600503738116,
            -0.4549744418702144,
            0.9035484720368996,
            -1.048925251894259,
            0.7347808473881137,
            2.6392777006536545,
            1.6770532577042032
          ]
        ]
      },
      "bias": {
        "rows": 10,
        "cols": 1,
        "data": [
          [
            -0.755
          ],
          [
            0.756
          ],
          [
            0.682
          ],
          [
            -0.556
          ],
          [
            -0.887
          ],
          [
            0.881
          ],
          [
            -0.296
          ],
          [
            0.08
          ],
          [
            0.671
          ],
          [
            -0.429
          ]
        ]
      }
    },
    {
      "weights": {
        "rows": 10,
        "cols": 10,
        "data": [
          [
            -1.5367613120006944,
            -1.4423343756161926,
            -0.38064143613954315,
            1.1613504438652411,
            1.6798003293183075,
            -0.3957745452909392,
            -0.8730654795288513,
            0.14372892579886437,
            1.2150022398937987,
            2.0993096385303627
          ],
          [
            1.434486951025607,
            0.5125503369934507,
            1.54062329678407,
            0.8119608337487555,
            -3.052450523456304,
            -0.19410580685415557,
            -2.437104950358082,
            0.3131356183415954,
            0.5289607796324876,
            1.7023855881952445
          ],
          [
            3.5442600346750064,
            -1.4086557201520242,
            1.9020654341607595,
            2.46166044971788,
            -0.5929926660822873,
            -1.7894507153131636,
            -1.940230735535471,
            -0.8866386502736905,
            -3.3734197924950977,
            -2.034405822227459
          ],
          [
            0.47710617194389193,
            -0.8567712614105344,
            -1.8711237566974437,
            -1.9574382664194847,
            -1.3786548422932055,
            0.3331930044539909,
            1.720700511833655,
            -2.5174315071573163,
            -2.913443920546549,
            0.18475165969243712
          ],
          [
            2.9019315900456855,
            1.0573275597776677,
            0.8460187020994989,
            0.8853391215070527,
            -3.6477770807900645,
            -2.179922539611056,
            0.5843610510153889,
            -0.8949655364660076,
            -0.877069775848655,
            -0.7545275232142478
          ],
          [
            0.17922592604489462,
            -0.05292703419129374,
            -1.0002304304388632,
            3.0573721359931767,
            -0.13825983359009647,
            -2.717011584593265,
            0.7457084127801159,
            0.027740806742422713,
            0.9528366585007708,
            2.7160101056008643
          ],
          [
            -0.21711565063821445,
            0.5403305049978065,
            2.347838735972195,
            0.3837788981804897,
            -4.768534292631825,
            -0.07195224524381244,
            0.37162806764509426,
            0.9521058333509284,
            -0.10532988532893642,
            -0.09536102298356774
          ],
          [
            -1.4276789050063088,
            -0.9177635129068755,
            -0.5485457930299372,
            -1.238815559124785,
            -2.2279520096323715,
            -1.0062927651845672,
            2.3684072902286726,
            1.964067101702653,
            0.7221644644557359,
            -0.23460635824266593
          ],
          [
            -0.6963319478662002,
            -0.7960695614013995,
            -1.640866607057324,
            0.511862087385511,
            -0.26910743282412386,
            -1.8965825707566668,
            -0.30357212730723104,
            1.9881954234754928,
            -2.241173448186169,
            1.7722853889497292
          ],
          [
            -0.48570212070361973,
            -2.176921213304245,
            1.805235570315799,
            -1.2665929344632003,
            3.7267694403098437,
            1.1914372166406366,
            -2.66522602903388,
            -1.2594574637360343,
            2.6094988511345374,
            0.1647801187973958
          ]
        ]
      },
      "bias": {
        "rows": 10,
        "cols": 1,
        "data": [
          [
            0.244
          ],
          [
            0.954
          ],
          [
            0.777
          ],
          [
            -0.829
          ],
          [
            0.858
          ],
          [
            0.704
          ],
          [
            0.267
          ],
          [
            -0.63
          ],
          [
            -0.522
          ],
          [
            -0.456
          ]
        ]
      }
    },
    {
      "weights": {
        "rows": 4,
        "cols": 10,
        "data": [
          [
            -2.955856916486171,
            -1.0042127275098287,
            0.9694946895297842,
            0.09989272228119017,
            1.3324687614337487,
            -3.8949620572049564,
            -1.7361569325294188,
            1.2419176146084157,
            -2.0827246769106704,
            -1.9185525658488458
          ],
          [
            0.03436286312803543,
            -0.3863287149773325,
            1.1518991921643544,
            -0.015016689115054382,
            -0.25107341525885263,
            -0.49904998138752504,
            -3.738801566815562,
            3.32806057613673,
            -1.382100731380681,
            -0.131579836755076
          ],
          [
            -1.071380422281229,
            1.167023815436389,
            0.709792586751167,
            3.1116240984238104,
            -1.1637172529269022,
            -1.1602999912769496,
            0.4164088543815338,
            -3.3719299779364262,
            0.33773520605117424,
            1.9599195317129734
          ],
          [
            -4.034153482822973,
            -2.2421420706087103,
            1.3926898680583741,
            -0.4652048962379031,
            2.8409917249730583,
            -0.982128414134209,
            -0.5452768642756682,
            0.5906837353968377,
            -0.016632713227974272,
            -1.0209408575888554
          ]
        ]
      },
      "bias": {
        "rows": 4,
        "cols": 1,
        "data": [
          [
            0.17
          ],
          [
            -0.481
          ],
          [
            0.298
          ],
          [
            -0.569
          ]
        ]
      }
    },
    {
      "weights": {
        "rows": 2,
        "cols": 4,
        "data": [
          [
            -1.0354559918434794,
            -0.07755083024222109,
            2.719264703237598,
            0.6495560228323428
          ],
          [
            1.4925849523092802,
            -0.022105850232196356,
            -1.2839878773681013,
            -0.4323615643724088
          ]
        ]
      },
      "bias": {
        "rows": 2,
        "cols": 1,
        "data": [
          [
            0.988
          ],
          [
            0.583
          ]
        ]
      }
    }
  ],
  [{
      "weights": {
        "rows": 10,
        "cols": 15,
        "data": [
          [
            0.22135396753595166,
            0.6406142355755785,
            3.028438591857484,
            -3.7051548034897577,
            1.5423970593786265,
            0.5593158215829098,
            -1.1773569550937315,
            0.11440317044047188,
            1.1699579773421274,
            1.6746334575978423,
            0.16759619807377357,
            0.8005258070626735,
            4.2226988737460625,
            -2.4756668965603192,
            0.8663836009083254
          ],
          [
            3.9255262534884503,
            -1.085587428317885,
            5.217853311269173,
            -0.3335110553899404,
            -1.788379105289715,
            -1.3508045031812266,
            -0.06835799147402111,
            4.1137321608916295,
            -0.8574670117602861,
            -1.691459876928724,
            1.6804297287520182,
            1.1675051865298989,
            2.15312793472884,
            2.282599038078047,
            5.02719037135481
          ],
          [
            -2.2518666972658212,
            -1.2562501991319213,
            -2.0661120844425356,
            3.362486218052899,
            0.8575786084860819,
            -1.7502113230550822,
            -0.3569376568794236,
            -0.2108261787899467,
            0.8361592115187924,
            -1.3818269227083264,
            1.4282223659003992,
            -1.5266897128404961,
            -0.038112519929533684,
            -2.557326810968828,
            1.0377557718874695
          ],
          [
            -1.656366897438537,
            -1.6977366166776666,
            0.8194852190001177,
            -3.6926788869760827,
            -1.5200967401225958,
            0.09040734205560697,
            2.007646832740019,
            -2.013635548880063,
            0.21449413292543368,
            -1.349528313017114,
            0.9033288492334288,
            1.7326937157328741,
            -1.267718321791926,
            2.623082627967456,
            -2.7105067853968774
          ],
          [
            -0.48757209400926493,
            0.8283128509413009,
            -0.5250035491873491,
            -0.2710053881045983,
            -4.507275316608839,
            -2.5378307277808356,
            2.59278783971034,
            -2.058278546558578,
            -1.3414308311529586,
            3.7120221433712057,
            4.745546593424323,
            0.28730732530338293,
            -0.1816136940143533,
            2.7362923453164356,
            0.5706584190224693
          ],
          [
            0.6492093769210531,
            1.7033590701994556,
            1.2841408097422646,
            -2.074804647535051,
            2.2136474787708167,
            1.516574682344045,
            0.7279574118898944,
            4.392192256080644,
            0.08320335062967948,
            3.0340414050755946,
            0.5191478353202614,
            -0.0013934976738819022,
            -1.6614786066041916,
            1.4731423041781255,
            -1.9603819518807117
          ],
          [
            0.7537982787741385,
            -0.4520318420860223,
            0.6729663856347584,
            0.7940933028751677,
            4.211264778751441,
            0.5698621605062214,
            1.9725742897908098,
            0.08169415831557209,
            -1.2944349323669693,
            -0.885354686549463,
            -0.6733511029933947,
            -1.0773942990972243,
            -5.446561289760643,
            -0.6183849549792396,
            0.29598815765286735
          ],
          [
            -0.896238857797206,
            -1.9472537601471729,
            1.1338109610245957,
            2.3703208095431636,
            4.203633933586475,
            -2.045860989777637,
            -0.9505705791972235,
            -2.1174995885280143,
            -0.23098422846443153,
            -1.200573594805697,
            1.0984341524000332,
            -0.980992508875373,
            -1.002923587728746,
            1.1221188171512075,
            -0.048375451618483105
          ],
          [
            -1.4959672064342475,
            1.9155527307129787,
            1.2635826985417076,
            0.9575266408631459,
            1.2305727793614447,
            -2.7373982311519875,
            2.124097059092962,
            -1.043777452687996,
            -0.36004472438385504,
            1.4568712893601343,
            1.9813653832862559,
            -2.4254657317121326,
            0.7246166468094017,
            0.38673685836148614,
            -2.665703098850586
          ],
          [
            -1.9264655667695334,
            -1.1303215792487424,
            0.08581999018277564,
            -5.147342067845871,
            1.7134327426811635,
            0.026529726356729372,
            4.23147680711425,
            0.8124524149364313,
            -0.8251372204850724,
            0.6781808087708607,
            0.9035484720368996,
            -1.3494451695867595,
            0.6074103033632566,
            2.877227047783522,
            2.1356341665544543
          ]
        ]
      },
      "bias": {
        "rows": 10,
        "cols": 1,
        "data": [
          [
            -0.755
          ],
          [
            0.756
          ],
          [
            0.682
          ],
          [
            -0.556
          ],
          [
            -0.887
          ],
          [
            0.881
          ],
          [
            -0.296
          ],
          [
            0.08
          ],
          [
            0.671
          ],
          [
            -0.429
          ]
        ]
      }
    },
    {
      "weights": {
        "rows": 10,
        "cols": 10,
        "data": [
          [
            -1.7494938469101922,
            -0.9543555683972046,
            -0.26307119392576217,
            1.1613504438652411,
            1.4449074477174961,
            -0.3957745452909392,
            -0.8730654795288513,
            0.6206221051117526,
            1.18142123488617,
            2.676723900707832
          ],
          [
            1.434486951025607,
            0.349206622307072,
            2.664304314534725,
            0.406519145720517,
            -2.511298111493119,
            0.47316465264787494,
            -1.9019220643020993,
            0.8532204651457349,
            0.5289607796324876,
            2.2239621357342125
          ],
          [
            4.1040960364481265,
            -1.4086557201520242,
            2.0717117995875345,
            3.9003909843423,
            -0.3420223482853427,
            -3.1369259795100497,
            -3.0402925355324206,
            -1.0080022499017518,
            -2.7648033942361945,
            -2.6034965486729815
          ],
          [
            0.47710617194389193,
            -1.4595021027859867,
            -1.8711237566974437,
            -1.054067811459137,
            -1.3545780780456878,
            0.02107230258462589,
            1.4156274005320768,
            -3.31028001988919,
            -2.913443920546549,
            -0.07643821986449878
          ],
          [
            2.9019315900456855,
            1.0573275597776677,
            0.06768704302263373,
            0.8853391215070527,
            -4.257447894968144,
            -2.179922539611056,
            -0.32081643407745764,
            -0.8949655364660076,
            -0.877069775848655,
            -1.7910086878455416
          ],
          [
            0.19557078800930686,
            -1.1634957781627744,
            -0.45431636003877396,
            2.5739765021037426,
            -0.13825983359009647,
            -3.579361196320109,
            0.7457084127801159,
            -0.7617338390088514,
            2.3705630937212203,
            2.9916001666989285
          ],
          [
            0.5389550717953483,
            0.5403305049978065,
            3.7928512564750734,
            -0.18114234268025836,
            -4.447444200521245,
            0.6307871609719595,
            0.18330951948410582,
            0.9521058333509284,
            0.45884254546794284,
            -0.09536102298356774
          ],
          [
            -1.2255142517020343,
            -1.046798957411696,
            -0.44507681000391225,
            -0.386950219171299,
            -1.041554730710724,
            -0.773286305009576,
            2.2977553059097513,
            1.964067101702653,
            0.7221644644557359,
            -0.7542459349696681
          ],
          [
            -0.6740008163634571,
            0.6149820206345404,
            -1.640866607057324,
            0.511862087385511,
            -0.31481142568112586,
            -1.8965825707566668,
            -0.5335157576987664,
            1.617521651285814,
            -2.883794162999647,
            2.3788118197505095
          ],
          [
            -0.09428766324000643,
            -2.368089256565787,
            1.805235570315799,
            -1.1968024858601987,
            3.7267694403098437,
            0.8583454987234023,
            -1.1618256685663093,
            -1.6664906931906371,
            3.2354575883114935,
            -0.18155787966483516
          ]
        ]
      },
      "bias": {
        "rows": 10,
        "cols": 1,
        "data": [
          [
            0.244
          ],
          [
            0.954
          ],
          [
            0.777
          ],
          [
            -0.829
          ],
          [
            0.858
          ],
          [
            0.704
          ],
          [
            0.267
          ],
          [
            -0.63
          ],
          [
            -0.522
          ],
          [
            -0.456
          ]
        ]
      }
    },
    {
      "weights": {
        "rows": 4,
        "cols": 10,
        "data": [
          [
            -3.316700094497975,
            -1.1934580165524304,
            0.45554041206800266,
            0.390123280226229,
            1.5734551957956846,
            -4.0514758523953756,
            -1.5771784194551692,
            0.5402821172564691,
            -2.1364865543475564,
            -1.9185525658488458
          ],
          [
            -0.7269271392823407,
            0.1816905319866708,
            1.1518991921643544,
            -0.015016689115054382,
            -0.5912764762493208,
            -0.49904998138752504,
            -3.1762671830732563,
            3.5618153456538297,
            -1.382100731380681,
            -0.131579836755076
          ],
          [
            -1.1285103506291443,
            1.167023815436389,
            0.3286587413678238,
            3.1116240984238104,
            -1.5279570424701785,
            -0.9883304710678318,
            0.25908982692717586,
            -4.800601338971213,
            0.33773520605117424,
            0.6656530252760335
          ],
          [
            -4.393878648247251,
            -2.050752704651966,
            1.0276056275897782,
            -0.7418921095624178,
            4.131813065330205,
            -1.0347426687170884,
            0.5564461367481577,
            0.6870000323454801,
            -0.016632713227974272,
            -1.0209408575888554
          ]
        ]
      },
      "bias": {
        "rows": 4,
        "cols": 1,
        "data": [
          [
            0.17
          ],
          [
            -0.481
          ],
          [
            0.298
          ],
          [
            -0.569
          ]
        ]
      }
    },
    {
      "weights": {
        "rows": 2,
        "cols": 4,
        "data": [
          [
            -2.0151132188043173,
            -0.07755083024222109,
            2.719264703237598,
            1.0695895043997403
          ],
          [
            1.2243879111077967,
            -0.022105850232196356,
            -1.7188930230678086,
            -0.4323615643724088
          ]
        ]
      },
      "bias": {
        "rows": 2,
        "cols": 1,
        "data": [
          [
            0.988
          ],
          [
            0.583
          ]
        ]
      }
    }
  ]

]